digraph Tree {
node [shape=box, style="rounded", color="black", fontname=helvetica] ;
edge [fontname=helvetica] ;
0 [label="y07area <= -0.2\nmse = 0.5\nsamples = 12\nvalue = -0.1"] ;
1 [label="y05yield <= -1.1\nmse = 0.1\nsamples = 5\nvalue = -0.7"] ;
0 -> 1 [labeldistance=2.5, labelangle=45, headlabel="True"] ;
2 [label="mse = 0.0\nsamples = 1\nvalue = -1.5"] ;
1 -> 2 ;
3 [label="y14yield <= 103279.7\nmse = 0.0\nsamples = 4\nvalue = -0.6"] ;
1 -> 3 ;
4 [label="y11yield <= -1.0\nmse = 0.0\nsamples = 3\nvalue = -0.8"] ;
3 -> 4 ;
5 [label="mse = 0.0\nsamples = 1\nvalue = -0.9"] ;
4 -> 5 ;
6 [label="y13area <= -0.7\nmse = 0.0\nsamples = 2\nvalue = -0.7"] ;
4 -> 6 ;
7 [label="mse = 0.0\nsamples = 1\nvalue = -0.8"] ;
6 -> 7 ;
8 [label="mse = 0.0\nsamples = 1\nvalue = -0.7"] ;
6 -> 8 ;
9 [label="mse = -0.0\nsamples = 1\nvalue = -0.3"] ;
3 -> 9 ;
10 [label="y10area <= 0.0\nmse = 0.1\nsamples = 7\nvalue = 0.6"] ;
0 -> 10 [labeldistance=2.5, labelangle=-45, headlabel="False"] ;
11 [label="districts <= 1.1\nmse = 0.0\nsamples = 2\nvalue = 0.2"] ;
10 -> 11 ;
12 [label="mse = 0.0\nsamples = 1\nvalue = 0.2"] ;
11 -> 12 ;
13 [label="mse = 0.0\nsamples = 1\nvalue = 0.1"] ;
11 -> 13 ;
14 [label="y13area <= 0.4\nmse = 0.0\nsamples = 5\nvalue = 0.7"] ;
10 -> 14 ;
15 [label="y12yield <= 0.6\nmse = 0.0\nsamples = 2\nvalue = 0.5"] ;
14 -> 15 ;
16 [label="mse = 0.0\nsamples = 1\nvalue = 0.6"] ;
15 -> 16 ;
17 [label="mse = -0.0\nsamples = 1\nvalue = 0.5"] ;
15 -> 17 ;
18 [label="y09area <= 1.6\nmse = 0.0\nsamples = 3\nvalue = 0.8"] ;
14 -> 18 ;
19 [label="y08yield <= 0.0\nmse = 0.0\nsamples = 2\nvalue = 0.8"] ;
18 -> 19 ;
20 [label="mse = 0.0\nsamples = 1\nvalue = 0.8"] ;
19 -> 20 ;
21 [label="mse = 0.0\nsamples = 1\nvalue = 0.8"] ;
19 -> 21 ;
22 [label="mse = 0.0\nsamples = 1\nvalue = 0.8"] ;
18 -> 22 ;
}